<?xml version="1.0"?>
<opencv_storage>
<opencv_ml_ann_mlp>
  <format>3</format>
  <layer_sizes>
    36 40 20 20 1</layer_sizes>
  <activation_function>SIGMOID_SYM</activation_function>
  <f_param1>5.9999999999999998e-01</f_param1>
  <f_param2>1.</f_param2>
  <min_val>-9.4999999999999996e-01</min_val>
  <max_val>9.4999999999999996e-01</max_val>
  <min_val1>-9.7999999999999998e-01</min_val1>
  <max_val1>9.7999999999999998e-01</max_val1>
  <training_params>
    <train_method>BACKPROP</train_method>
    <dw_scale>1.0000000000000001e-01</dw_scale>
    <moment_scale>0.</moment_scale>
    <term_criteria>
      <epsilon>1.0000000000000000e-08</epsilon>
      <iterations>1000</iterations></term_criteria></training_params>
  <input_scale>
    4.6499519114082988e-01 7.2637529993033897e-02 9.0930525933546236e-01
    -3.5465773409855107e-02 5.3175516335572048e-02
    -8.1064850129413413e-01 2.0923813200138378e-02
    -1.8442426528779023e+00 3.5637118534198808e-01
    1.8678571734041319e-02 7.5251394637107916e-01
    -6.6824188946970021e-03 4.7360991806428498e-02
    -1.0783672027555065e+00 2.0414796256521102e-02
    -1.7756641673802791e+00 3.8299597209576186e-01
    -6.6525312212345630e-02 8.9831049656916040e-01
    5.2629093613665884e-02 4.6867351066629481e-02
    -8.8148867850922219e-01 2.0570948112836912e-02
    -1.7745941781658114e+00 4.0704233589826888e-01
    6.0296195312425055e-02 5.7895314982631096e-01
    -8.5736203445172854e-02 4.4649675515994379e-02
    -8.9824174937631607e-01 2.0633299216993386e-02
    -1.8231437358706750e+00 3.1222382871604409e-01
    2.0746633296592092e-02 5.2340433582089130e-01
    -4.4013846473579477e-02 4.0567426845273341e-02
    -1.1360865680022763e+00 2.0047325572808552e-02
    -1.7702979945416761e+00 3.2325662445463432e-01
    -2.7410530035995116e-02 6.7570074614153253e-01
    5.8385234051530684e-02 4.0217992005773903e-02
    -9.5102369207316095e-01 2.0612322244095094e-02
    -1.7664261440393965e+00 3.6505880970073462e-01
    6.6794245838282279e-02 5.8144616211739897e-01
    -8.2572692110977342e-02 3.9242052766202323e-02
    -7.8691085693005802e-01 2.0196413674782976e-02
    -1.7401477217708561e+00 2.9347305329486101e-01
    2.1969744367711395e-02 5.2294877528949590e-01
    -1.8644691360126454e-02 3.5468202866095831e-02
    -9.5993549811022505e-01 1.9827818101909929e-02
    -1.7122719516033171e+00 3.1032164805410245e-01
    -1.7127405835920134e-02 5.8478695581183082e-01
    4.9149776496147275e-02 3.5735546568663783e-02
    -8.3716616529981414e-01 2.0418268876139324e-02
    -1.7368670301169531e+00</input_scale>
  <output_scale>
    3.1578947368421053e+00 3.</output_scale>
  <inv_output_scale>
    3.1666666666666665e-01 -9.4999999999999996e-01</inv_output_scale>
  <weights>
    <_>
      6.6299738307730516e-01 -1.4646480968615276e+00
      -3.0335705675907509e-01 -9.3000358466992505e-01
      1.1830231558256514e+00 -3.8612366819022947e-01
      1.6491387640662522e-01 3.4915947408057313e-01
      -1.0159833153674067e+00 1.6869493116103056e+00
      -1.0006179771343875e+00 1.2421556355915788e+00
      1.8827808609453014e+00 -1.4331907574109946e+00
      1.1549313968661408e-01 -5.0451680816059596e-01
      -5.0141404652599042e-01 -9.5422585178469488e-01
      -9.9384009636756171e-02 1.1095606835789855e+00
      8.0965141393639262e-01 -1.8461442422740753e+00
      6.5016990775704198e-01 3.3509926268381474e-01
      6.5387777041497022e-02 2.8946665830284918e-01
      3.6632586350604001e-03 -1.1268957290269310e-01
      -8.4652937928658389e-01 -1.4412163661942836e+00
      2.1066514455348382e-02 1.6383598153602421e+00
      -1.3310245281361566e+00 7.4199373246192468e-01
      8.6596492081987131e-01 1.9276172860385128e+00
      6.0933564410615204e-02 1.0561682059136119e+00
      7.5157965017333950e-01 4.2765651867691039e+00
      -2.3415166942913887e-01 2.2757446687474094e+00
      -3.0471164478798869e+00 1.1432534148969089e+00
      -1.9878041134034556e+00 1.2423229938980114e+00
      -5.4182639105567820e-01 -1.5138639056032741e-01
      -1.0637041441131507e+00 -8.4769374931079355e-01
      -1.3996345594528847e+00 1.8202989819300399e+00
      -1.6177344835005334e+00 2.4708223790076378e+00
      -7.9853799854784346e-01 -5.0142593778538602e-01
      -9.6752893067600743e-01 3.5956383413413284e-01
      -1.6406068302758647e-01 6.6334188848575582e-01
      2.5323092194956232e+00 -3.2582681368539274e-01
      7.0866529722638988e-02 1.0250037270707013e+00
      -1.1317263755608958e-01 1.2292398565924956e-01
      2.3120536073727707e-01 -5.7270049485243046e-01
      2.9518978931960258e+00 -5.9599282186330660e-01
      -1.1218628360267703e-01 -2.5342709135720715e-01
      -2.9980798371626367e+00 -9.1053439624618024e-02
      -1.3367000758096419e+00 1.0785293934288729e+00
      1.5997771850265577e-01 5.9719011755092888e-01
      2.7048531560879256e+00 2.1586481214068773e+00
      8.0784413782792286e-01 -3.5550237521591427e-01
      -1.4051268112024604e+00 1.6357242524029643e+00
      1.2119587467630824e+00 -3.1425204963182429e-01
      2.7379540483833016e+00 2.0148131640547899e+00
      -1.1673277065783612e+00 3.3744648763959750e+00
      -8.8019016131811345e-01 -1.9049051852540071e+00
      -1.6819552441689016e+00 1.0333933151108594e+00
      1.9636476183243872e+00 -2.0891603267755006e+00
      8.5926101406323963e-01 2.4010573563629403e+00
      -1.5113174040607678e+00 7.2614950518426791e-01
      8.3841362260883501e-01 2.2659624420306486e+00
      2.0850198322049671e+00 2.0707092118957057e-01
      -2.0554089287721355e+00 -1.6663201218967523e+00
      1.0090333892044852e-01 -5.1512986463372057e-01
      -1.9794584547676759e+00 -2.9922331494803744e-01
      1.3489028509912930e+00 -3.3040079945712542e+00
      -9.4412222253681607e-02 -5.9960772259692225e+00
      2.5566760008977099e+00 3.8420937692171264e-01
      5.4609450220354927e-01 -1.6649645150123382e+00
      1.3400157730692699e+00 -1.0580503079810917e+00
      2.0367679859395387e+00 -3.3644168837235129e+00
      6.0589592621189248e-01 1.0112594222176243e+00
      1.8814311714717247e+00 -3.3277072138984956e+00
      -2.6518174160107790e+00 8.9819001141201360e-01
      1.2662923593385813e+00 -2.8389798111484201e+00
      4.1866058564067572e+00 -1.1747605134869619e+00
      -2.0401291699233126e-01 4.1903806984877052e+00
      -6.2234338101136766e-02 -6.4002726019939837e-01
      -3.0251373533124126e+00 1.6178928547353471e+00
      1.5712534384816694e+00 -1.0407040842235562e+00
      3.5804716804957204e-01 3.5686444407441078e+00
      -1.0137475752326797e+00 -1.7618147445054460e+00
      1.9522996498825667e+00 1.8397371904208297e+00
      -2.3237010998109200e-01 1.3594748352169232e+00
      -7.5531354710446263e-01 -1.1261574182240239e+00
      1.3342089267842945e+00 1.0841077398562398e+00
      2.5116794683557671e+00 -3.4194924028713261e+00
      -1.4677036990583067e-01 1.4239714553516885e+00
      3.8306236464164721e-02 -7.2215488221188495e-01
      5.8891104179183806e-01 2.1014276194489221e+00
      -2.8051288105560719e+00 1.4803862781848338e+00
      1.9524515190561160e-02 1.1569012023850314e+00
      7.1325873569132858e-01 -6.7316744104271597e-01
      -1.8572748530242402e+00 -6.0496932163117301e-01
      9.7200188441042876e-02 -1.6937587644623445e-01
      6.4367627556604623e-01 1.3120941569419895e+00
      7.2831837271615818e-01 -1.6813190258392925e+00
      -8.5267557545943018e-01 1.2986023598603462e+00
      1.0287247746895607e+00 1.2915876198216933e-01
      -3.5133494102536073e-01 5.4576539577848526e-01
      5.9881282438234362e-01 -1.5919173352929756e+00
      -1.0466941398025775e-01 1.6608798763839581e+00
      3.9335502860473931e-01 1.7190394686900259e-01
      -6.2925598608159508e-02 1.5479558738985533e+00
      -1.0996682467515573e+00 -5.3641954382155366e-01
      -2.1283147814704834e-01 -3.6989095141282297e-01
      -9.8153432328325685e-01 2.3316020053002164e+00
      6.7286127693231468e-01 1.0660380563311258e+00
      -1.5249377731606879e+00 -5.2933596361254755e-02
      2.6128584969670560e-01 9.2209781732769813e-01
      -2.1327831146599916e+00 1.3902628403998476e+00
      -3.4820727495010551e+00 1.9148395583575382e+00
      -5.0546800822246318e-01 2.2188008981390741e+00
      -2.3133227178337394e+00 -7.0102398174226621e-01
      -4.7668226598077956e-01 1.0673811931286121e+00
      -8.4939899381357298e-01 1.6315220952541394e+00
      1.5303361496784467e+00 6.3907492647331321e-01
      -2.9296712649755206e+00 -1.4228156125855224e-01
      -1.7695331968978434e+00 1.7196051088692716e+00
      1.5650538335746786e+00 -7.4517572912403596e-01
      -3.3364206030930549e-01 4.5959332775909029e-01
      -1.5426892518265443e+00 -2.1259173904616100e+00
      -5.1498895916682907e-01 7.5717691771924045e-01
      3.1821695502431246e-02 -1.9179728890651923e-01
      -1.8420696651811415e+00 6.1750100240902961e-01
      6.7465402263277552e-01 -8.8688424953399259e-01
      -5.8454570320518551e-01 -4.7765565288043134e-02
      -2.2050469262682513e+00 -1.5979418238415430e+00
      1.5247553166545791e+00 -1.8940546570985819e+00
      -9.4456825976161207e-01 -7.3854309650692584e-01
      -2.8869067756236033e+00 -2.0972235190541402e+00
      -8.8226136622628371e-01 -2.3121462851804622e+00
      -5.4473552516557222e-02 5.8693119957975444e-02
      3.5054631240195064e+00 3.4606552780305306e+00
      -1.4080975291841491e+00 1.5308704167761633e+00
      -1.9670411495639504e+00 -1.1431724843925291e+00
      -1.6466734125926439e+00 -2.9570387739823887e+00
      4.8742406732532073e+00 -8.7841563765757946e-01
      -1.0421857433424739e+00 2.9308858406995868e+00
      -1.9638959311811330e+00 -6.1990726324746104e-01
      -9.0887697570422032e-01 1.8802826630114668e+00
      1.3532284367641008e+00 3.6819589308214440e-01
      -1.0429296123780081e+00 -1.4620454005504562e+00
      -1.2789351092963788e-01 -1.2789877939463010e+00
      -6.1077254389066160e-01 -8.7052776845921420e-01
      -1.9690975815284945e-01 -3.9660451458265493e+00
      -4.4575300105791910e-01 1.3986630899649556e-02
      2.5532300580192407e-01 -9.3263077454627186e-01
      -2.0979300449384711e-01 -5.3942712588774500e-01
      2.4764781015264059e-01 3.7047264986812189e-01
      1.7380321172589268e+00 2.0734591414069781e-01
      4.4702159273448503e+00 2.6071040765818667e+00
      -2.4686247153153169e+00 -4.7177143258174734e+00
      -1.6001993342164278e+00 1.2150042358046946e+00
      -1.2158929929926501e+00 -2.1485592848092980e+00
      2.9629832942080330e+00 2.8158325134715994e+00
      8.4720803520849808e-01 -1.6641548677434008e+00
      1.5576535237816012e+00 -4.9184612087140273e-01
      1.9778477352436148e+00 5.6441433488341597e-01
      8.3779826526023959e-01 -1.4531028883856139e+00
      9.7876768663647518e-01 -1.0553515582576407e+00
      -1.0727439417130837e+00 -3.5968630096724158e-01
      1.0894648425968139e+00 1.0243213968210747e+00
      5.8224859684601438e-01 1.6759209847224590e-01
      1.9237738716925235e+00 3.0701912680774701e-01
      7.8131043357105867e-01 1.8178955370355108e+00
      -1.5227601958179395e+00 -1.4908459395880957e+00
      7.4854369156160644e-02 -5.8562214706279225e-01
      3.4907581347655758e-02 4.8527763917934225e-01
      2.1021326403342830e+00 -2.2559200909639419e+00
      1.3248278789416068e+00 -1.0300580077652345e-01
      -7.0793871138246722e-01 2.4126432314612924e+00
      -2.2365495721283439e+00 4.2041018348284703e-01
      -3.0189042411166520e+00 -4.2305284855877012e-01
      2.1376351198791826e-01 8.1413328369642957e-01
      -5.3844530909802635e-01 -3.2017734595038823e+00
      -7.1349006177238017e-01 -1.1107871327296357e+00
      3.9060253421988544e-01 6.7179185674423836e-01
      -4.9084397403932084e-01 2.1374570913967132e+00
      6.6362370463192744e-01 1.0704643031835013e+00
      8.8752789450687175e-01 3.4629486560725281e-01
      -2.0131938604200705e-01 5.7085371056142553e-01
      2.0605389565031706e+00 -4.1362627354498310e-01
      -2.0950313553765609e-01 1.9862745083415063e+00
      -1.2521615168279978e+00 -7.4451711068600279e-01
      -7.0842553576637601e-02 5.9422061395091463e-01
      3.5885804392698423e-01 3.3814927722729438e-01
      2.0960014218391484e-01 -4.7498138648019833e-01
      -2.6592286321624831e-01 1.3652448903191228e+00
      -4.9999696405034166e-01 -2.3410877724207602e+00
      -1.4379855168144482e+00 2.3186754241281062e+00
      -7.2775202959592222e-01 1.4777268164621982e+00
      2.8707734650079342e-01 -1.0930306537343357e+00
      -1.6529794125954635e+00 -2.2807574922857508e+00
      -9.3023025899856915e-01 -1.3494371515204342e+00
      -1.0505926663541461e+00 7.4625505276362150e-02
      1.5970483686544228e+00 -3.7358447653091092e-01
      -4.0352688001760417e-01 2.6445344833972522e+00
      2.3921493631057422e+00 1.1540597136102309e+00
      8.3335724676768530e-01 -9.9837904668894573e-01
      5.1324284219224214e-01 -3.1253135764999646e-01
      1.5740779752520337e+00 -1.5706520540431421e+00
      -1.9462877272345094e+00 -2.1433510473929296e+00
      1.9514574363401943e-01 1.1921675571459118e+00
      -7.9841023468458738e-01 -5.8381982005138267e-01
      -2.1724075371808484e+00 -5.6232183645744493e-01
      2.7055670813568311e-01 -1.0146346049402184e+00
      -9.2870713553465356e-01 -5.4027733555417856e-01
      3.4865796984353148e+00 1.0637075271873402e+00
      1.2024631323056463e+00 -2.8738414409312618e+00
      8.6929956937270436e-01 -1.7133468864137380e+00
      -1.2768225307972643e+00 3.2161126213022806e-01
      1.6126634261868258e+00 2.3048441717737286e-01
      -3.3770006834231781e-01 9.5215792711681602e-01
      9.3355960565256260e-02 1.0972200192648487e+00
      -2.1583255658151836e+00 2.8786937648624533e-01
      -8.4987597170014939e-01 -3.3626802628224599e+00
      2.9538585424994857e+00 -1.7421974785189651e+00
      -4.2373506016763657e-01 6.9404756711254678e-01
      -2.9752631783709962e+00 6.6804429664313070e-01
      -7.8353215217819447e-02 2.7422602511989208e-01
      2.1481500768443564e+00 -2.0003849969115000e+00
      -3.4910987191580811e-01 -4.1481323498270833e-01
      -5.3684147410410910e-01 -2.2250072475133340e+00
      2.9649450250593752e+00 6.2050698937580384e-01
      -7.7319403842658596e-01 1.2479324709072601e+00
      4.5233035317214215e-01 3.8258532029260310e+00
      2.1623997733068023e+00 -8.5665950126797630e-01
      -3.7954411482529571e-01 -1.6632031235354830e-01
      -1.2543381649903887e-01 4.7159989270866927e+00
      -3.7144534652891363e+00 -1.0526533953244346e+00
      -8.2159775819586833e-01 9.9784334151296561e-01
      3.9886250560458163e+00 -3.1274710512451365e-01
      -1.1779220758463536e+00 1.3792647088092711e+00
      -2.2208185337576497e-01 -1.1091701005748291e+00
      -9.6273154140902129e-01 -8.5201461598289796e-01
      3.9923488956755127e-01 2.3444903139674422e+00
      -4.0933104393381967e+00 1.7304255852731383e+00
      7.7581841570534460e-01 1.8269448887000783e+00
      2.7168278041030547e+00 1.1888542514427374e-02
      1.0916349229570692e+00 -4.1196353078501297e-01
      -8.7514986654079285e-01 1.9849901137115150e-01
      5.8355679685592254e-01 -1.1368020150577967e+00
      -1.7009538065602816e+00 3.0603727511125531e+00
      8.6529577920442924e-01 -9.6237859333739495e-01
      -4.0502301572862298e-01 1.0287238459795192e-01
      1.0410104426279896e+00 1.3293993185354855e+00
      -1.5133498412403246e+00 4.7717473951565648e-01
      -8.9409186729646062e-01 -1.7106347538973837e-01
      1.0068209541603761e+00 1.4560796031439318e+00
      -5.2345491380957943e-01 -2.6837723118653778e+00
      5.7683377269844305e-01 1.1133384613097550e+00
      -7.8155440686525213e-01 -3.2917010883726699e-01
      -2.3291231122132570e+00 1.8638459220927934e+00
      -6.8984761316229137e-01 -3.1257271796600189e-01
      -2.9946367177766189e+00 -1.1992531895227214e+00
      9.9927179524790111e-01 -4.7984845982391257e-02
      -4.2769135915555967e-01 -3.6663491333721498e-01
      -2.3328649171561464e-01 -3.5331022438199472e-01
      -1.1964466740588737e+00 -5.5410335848077508e-01
      1.3289079391022263e+00 1.7820547482680913e+00
      8.1073602601751990e-02 1.7490995813791947e+00
      1.5819270078991818e-01 5.6014603343888483e-02
      -5.1747998949839547e-01 -7.6007451860287512e-02
      -2.9695994583349732e+00 -4.9916954677130321e-01
      -5.9512551061072239e-01 -4.5000026702124823e-01
      2.8860078737688177e-01 8.7082361810523590e-01
      6.8020934332026450e-01 2.7211896535304608e-01
      1.3578051838464660e+00 -3.3620384392737312e-01
      3.7684681516266072e-01 3.2045513795455309e+00
      7.4224657064331434e-01 1.2234578623514090e+00
      2.7252999912410130e+00 -1.1453393882434222e+00
      5.2572267535582085e-01 9.6811318455574991e-01
      1.0302687842934570e+00 -6.6330755225381330e-02
      -1.8167632671395684e-01 -1.4730976449127904e+00
      -3.0713028370904887e-02 -1.9843373968921814e+00
      -4.0827938980277256e-01 -3.0570442313466367e-01
      -1.8259325773123305e+00 8.3103591708473712e-01
      -7.5393457474175662e-01 1.4597319066851369e+00
      -2.7003156579611653e-01 1.8517903526519846e+00
      4.0817019699896834e-01 1.3490821216154833e-01
      -2.2299665740966392e+00 1.2770293926327716e+00
      -3.8621752851455876e-01 9.2880411423229325e-01
      -3.3058584567659766e-01 3.3539238209134437e-01
      -1.0175675305319729e+00 -1.0883719137736392e+00
      2.7010969023231679e-01 -1.4935545783598265e+00
      1.0715635577770068e-01 1.2123165930468218e+00
      1.9528977406991730e+00 -1.1806672252312100e+00
      -2.9401536093749303e-01 -2.8199677605577693e+00
      -1.3955578367306493e-01 9.2866518542589638e-01
      1.3438520275601586e+00 5.3441514500542020e-01
      -7.6354130405692566e-01 1.4967357787912894e+00
      2.3115287029440417e+00 -8.4715161260073257e-01
      1.8504805179624970e+00 4.4747870146558266e-01
      -1.3121543970574717e-01 -2.4496206172670347e+00
      -1.4493420451155630e+00 -4.4365554666953683e-01
      -2.7551036418910391e+00 3.7404583149271140e+00
      4.1984424628261845e+00 9.4174110242865217e-01
      -5.2894316649623729e-01 -3.3305879231351815e-01
      -6.8574333841761190e-02 3.7852320671145212e-01
      1.1344163244297187e+00 1.8950511629131428e+00
      1.7008120128467381e+00 -5.2637389955960234e-01
      1.4738293899544752e+00 -5.0305380670194655e-01
      7.9334324931393485e-01 -4.2147641531669627e-01
      -2.3471517168555618e+00 -4.7638734265935917e-01
      1.4199865837553209e+00 -3.4472478720649185e+00
      -1.0827742046581019e+00 -3.3368144509580999e-01
      7.9912683874613466e-01 2.2187113517437317e-02
      -1.5349373578591219e+00 1.5557520260444543e-01
      2.0224054944334083e-01 -3.2076580419253045e+00
      1.3259640475767982e+00 -1.2271005664031147e+00
      -1.9508240282037212e+00 -3.9216427056759834e-01
      -4.0181081413677626e+00 5.3269863893880895e+00
      5.0902106471006729e-02 -9.5762817692003432e-01
      6.8483374967430688e-01 -1.4076722500861485e+00
      -1.9027664466377803e-01 2.1453789667597364e-01
      -1.1612585223304960e-01 -4.1461738990958852e-01
      -8.9087192042308827e-01 5.4495011315713446e+00
      2.3029605428874866e+00 6.0345368821908629e-01
      -1.3145905141791379e+00 -5.5870702414945417e-01
      -1.2347274243332333e+00 -4.0381221307762125e+00
      7.9245068948952624e-01 -5.6352465101806226e-01
      3.6275319152930865e+00 6.5190135242343339e-01
      -7.7165804357152507e-02 4.3070489612806234e-01
      1.1902812007387540e+00 -9.5811321047745890e-01
      -3.4939753724386224e-01 2.9534005383726686e-01
      -2.9623812528918342e-01 -4.6490157649830808e+00
      4.4663747077681981e-01 1.9357082573149512e-02
      1.4450642421476201e+00 -2.0574239927052527e+00
      -3.7978089818471732e+00 1.3347652801377865e+00
      -1.8523849326424762e+00 8.9904103606493957e-01
      -8.7738048142971514e-01 -9.0632308630541281e-02
      1.6182534760907366e-01 3.5874335433081578e-01
      -1.7499130414024742e+00 -7.0477059003089404e-01
      -7.4042696446179757e-01 -6.7550289410687758e-01
      2.6148262823379511e+00 6.6513472366163384e-01
      -2.1564044086802595e-01 -1.6735523786407724e+00
      6.3233556838864280e-02 1.6373915051602226e+00
      1.0409433070499179e+00 -1.4187782582534952e-01
      1.6244176832745105e+00 -1.5487885517726361e+00
      3.6705162982335687e-01 1.5726233400098790e+00
      5.8826391410789713e-02 2.1190156786039092e+00
      -6.7749740496142685e-02 8.4831841178114809e-01
      -3.7650411171637932e-01 4.9921935623410069e-01
      3.6557188404117041e-01 -1.3152359882838520e-02
      2.9787833884777470e-01 2.8645502693276892e-01
      -6.4656652785736712e-01 1.1388681069619371e+00
      -9.9772279619887760e-01 3.1282727990137316e-01
      -2.9422251547154332e-01 3.2896837910072890e-01
      -7.6036141996923351e-02 -1.9097554557723337e-01
      1.0055482951966970e+00 2.7055771125907344e+00
      -9.1382384231845493e-01 1.1551125462174185e+00
      -2.7766457492198873e+00 -2.7950510404842741e+00
      1.6588486986476766e-01 1.3412326150881591e+00
      -8.0917885265790701e-01 -5.1551394090096136e-01
      -1.4567092917885444e-01 -1.9324253162871772e+00
      1.8214760639417646e-01 1.8797699684356128e-01
      -1.9534256257304685e+00 1.5158793640832069e-01
      -7.4595964783994273e-02 1.5315241637924528e+00
      -1.3421134578693744e-01 -5.5739350968839897e-02
      4.5209113663028511e-01 8.4684760554322192e-01
      -8.1375996537808226e-01 -3.0775523042120145e-01
      3.8140346276115206e-01 1.7004747514325577e-01
      -7.5025963027399845e-01 6.8180248850595737e-01
      -2.3753580452178262e+00 2.6037660591088291e-01
      2.3654255343911512e-01 -1.4496150625772282e+00
      6.3224586306530953e-02 -7.1479875425709904e-01
      -1.3644349249891907e-01 -1.0266845214154916e+00
      2.6070733374901529e+00 -3.2431213704646487e+00
      3.2964685246511238e-01 -1.6246604091824313e+00
      -7.2905213583699280e-01 6.2611813872514288e-01
      -1.0961178087619288e+00 1.7864341398048305e+00
      -4.0210620112425316e-01 -3.3191199721531846e-02
      -1.2174052741085830e+00 1.6702877720640743e+00
      -1.1428247204469286e+00 -2.1137410711742604e+00
      -4.5395109808978273e-01 6.7635078031359408e-01
      -2.6219795973741462e+00 -5.4202511804953626e-02
      -1.2810914277834997e+00 -2.8943588921926139e-01
      -1.2124269206716058e+00 -2.1532648811878063e+00
      -4.1618891696952165e-01 -1.0988475212271396e+00
      -1.2094623436948961e+00 1.0389309873227550e+00
      -1.2717395125509329e-01 -2.5586175283772550e-01
      6.0334015619886150e-01 -7.7574400362048423e-01
      4.6014675138855032e-01 2.7478289301125853e-02
      -2.3185440887663069e+00 -8.2219748908890045e-01
      -1.9051447677532060e-01 -2.6298166493719801e+00
      -8.6286825232346520e-01 2.0288965113636324e+00
      -3.9812231881940252e-01 -9.5659172991516092e-02
      1.0737817533451284e+00 2.6728988215984117e-01
      2.5863830859988152e-01 -1.4072353039622862e+00
      -8.3524476992315777e-01 -4.0857408918499194e-01
      2.5913987570386339e+00 -1.2528794585001817e+00
      1.8790859360227188e+00 -9.6168856723710516e-01
      -2.2920299200295191e+00 -5.8864734435388777e-01
      8.4547748396535105e-01 -3.0191100602763838e+00
      3.2278599868815588e-01 3.9216916052959644e-01
      -1.1829866772423583e+00 -1.9653660913630848e+00
      -2.7486668344422984e+00 -1.9935231801829689e+00
      5.2103481987168969e+00 -1.3917378486681412e-01
      -2.3684569602390262e-01 -7.1109853372348453e-01
      -6.8823904352084464e-01 -1.7100470828732106e+00
      8.2640384582276827e-01 9.1446837523565094e-01
      -3.8065746188998060e+00 1.8563235458846057e+00
      2.0037735975434861e+00 -1.0145030478280266e+00
      2.0465117955129943e+00 2.6784073901453637e-01
      1.5274072237987846e-01 -1.3845587314835284e+00
      -4.7150728163733058e-01 -4.4640901759865663e+00
      1.6863308223268685e+00 6.6867139274262499e-01
      -4.6815874079765657e-01 -1.2704646086467737e+00
      -2.5760368429511488e-01 1.9426222474480643e+00
      8.2089627398601328e-01 2.3825513296827874e-01
      -1.6241507656136394e+00 -2.1991650110849209e-01
      1.8535071363709115e+00 5.8446609181803388e-01
      -1.1878802710754610e-02 -7.7306105706517886e-02
      -2.4431133203354219e-01 -1.6521452625864077e+00
      -3.9234168777006490e-01 -2.9117574611045116e+00
      -1.4708906619155779e-01 -3.6631030601206942e+00
      1.5650495443711467e+00 7.9023009231854269e-01
      2.7371901157248735e-01 -5.3952181540021439e-02
      -1.4178682275398530e-01 2.8149861221314260e-01
      8.8576538858556486e-01 8.7414823579803280e-01
      -1.1904329726357675e-01 -3.7066601628781670e-01
      2.3444169952888489e+00 5.2356180243273473e-02
      -1.0209703594402002e-01 1.5634125705090349e+00
      -1.9670813684198041e-01 -7.8281292118382362e-01
      4.5864930159491024e-01 -4.9703276837188864e-01
      1.4757323044424489e+00 8.1555343762710497e-01
      1.2643768606940680e+00 -3.1541003022001197e+00
      -1.0783662617529171e+00 -8.8013267677570750e-01
      -1.1538028253985562e+00 4.4639766697004934e-01
      -1.5989975706389532e+00 6.7542325217988353e-01
      2.3286723582604574e+00 6.7027043217338278e-01
      -1.2493855329806587e+00 -1.6129488405696806e+00
      -3.6846096541027751e-01 -3.2341778490839856e-02
      -3.7728882884180352e-02 -1.8750215016845784e-01
      -3.5619403320633514e-01 -1.0087219938926493e+00
      -8.4242510842264459e-02 2.2102045613061754e+00
      -9.9396495091475590e-01 1.1022280992953264e+00
      3.9241181633816886e+00 1.5454344292840645e+00
      -1.7603204506915144e+00 4.3184500786447250e-01
      -1.9764541263602040e+00 4.5263383563030957e-01
      -1.9687046915720092e+00 1.1500894564988788e-02
      -6.5473785071443147e-01 1.4709821932831155e-01
      -2.5593264113192282e-01 -1.1453066216153800e+00
      -1.7994611734611869e+00 6.3031973688139797e-01
      -8.6666599802555788e-01 1.3634365158365271e+00
      9.5366748140968849e-01 8.5349859323418453e-01
      -1.4996129235328219e+00 1.2431503397926320e+00
      1.5384110087477132e+00 1.1444799065882159e+00
      -5.1133274641431858e-01 7.9086367105457189e-01
      4.5048136094263782e+00 -1.2377619645813309e+00
      -2.2028562119173438e+00 8.6133652796524585e-01
      -3.6407141955722278e+00 1.2450522342974764e+00
      -2.9564986190471187e+00 2.6228744836820639e-01
      2.6404309520279201e-01 5.8475279270975100e-01
      -3.1668437798831124e+00 4.4327612275987018e+00
      -1.7878268472039141e-01 3.5601683331064571e-01
      -5.5509383849971305e-01 -2.6447266783607604e+00
      -1.0836714065302864e+00 -4.3273088000424925e-02
      -2.1345941130079193e+00 6.5152395637926652e-01
      4.3505496916748937e-01 -3.8829013132086859e-01
      2.0594231931145321e+00 -1.5288132142750244e+00
      -4.3034120189228325e-01 -7.5055115866834787e-01
      -4.1696456348678784e-01 -1.6509478411732041e+00
      2.2868194674878873e-02 9.6677046062760685e-01
      1.4524309001271680e+00 4.5033370989987800e+00
      4.9280252702321131e-01 3.4419944550319759e+00
      1.5044919021246435e+00 2.6230351916722733e-01
      7.8180058616501213e-01 -2.0420368429982494e+00
      -1.7426301747787090e+00 -3.6249808468878103e-01
      -8.0028823687592754e-01 2.9743972581121242e-01
      4.4809219011074122e+00 -9.7005057330413813e-01
      5.8535778828447949e-01 -2.9720253012351860e+00
      1.2731314399033351e+00 -9.1621272715196844e-01
      -4.5290561170491732e-02 1.6215860180751154e+00
      -2.6494017929851279e+00 2.2483323478438817e+00
      8.9760876378627386e-01 -1.4852369076659615e+00
      -8.5040539689050765e-01 3.8717466142897294e-01
      -2.1633305096442732e+00 1.1536694140271055e-01
      -2.2361306083000013e-01 -1.2526130234127471e+00
      -2.3102175361561750e-01 -3.2191541011196416e+00
      -1.0503109853495094e+00 -8.5797035273681224e-02
      -2.3375048963902394e+00 1.2400869186950212e+00
      -2.4704099862271565e+00 8.3784659269446360e-01
      1.9045088197575655e+00 -7.9110224253331574e-01
      1.9140657608191594e+00 4.4175855651709572e-01
      1.5829581281173415e+00 2.3306084631695505e+00
      2.6936078378841808e+00 -2.5639008391425788e-01
      2.5759480901350353e+00 -2.8622298692684983e-01
      1.7525964357474593e+00 1.4163299834419335e-01
      -2.7180707399436614e+00 3.5662176563350173e-01
      7.8048611645473487e-01 1.8910589348940574e+00
      -1.3726048753530526e+00 7.1151196123291260e-01
      -1.4563399575645535e+00 8.0641127358698084e-01
      -1.5028641312074914e-01 6.3457747932615105e-02
      5.9903981866862832e-01 -6.1529832172427001e-01
      5.7153769950458577e-01 -1.6354033711680885e-01
      -1.0267857023497298e+00 1.0129398785947850e+00
      4.9615641622993129e-01 1.5754179471308152e+00
      -7.5673594104520714e-01 -9.4408201193004737e-01
      1.8091707169107218e+00 1.2895818728095804e-01
      3.0152205105259855e-01 6.0756044245524954e-01
      -2.6105751129146354e-01 -3.3157810927915934e-02
      -5.8467546803081805e-01 4.0638674030912467e-02
      -2.8667121191158014e+00 -1.6057821954725346e-01
      7.1838218870367054e-01 5.1841574791277001e-01
      -8.0067395856492318e-01 1.2125261468251022e-01
      -2.2105341464721065e-01 1.8130285479591808e+00
      -6.5275993861719628e-01 8.3896866967041273e-01
      9.1690683844835907e-01 1.0490148600950731e+00
      5.0103258981348799e-02 1.7310688968934609e+00
      2.3269142312979985e+00 1.8199589463826353e+00
      -6.7714283851437029e-01 1.0251016632828114e-01
      -3.4697994734031745e+00 -1.7829543656378708e+00
      5.3027355411178131e-02 3.2708999403469324e-01
      2.6796823832560643e+00 -2.2923392424206976e-01
      7.1010313432247243e-02 -2.1900813251584383e-01
      9.5121427716520668e-01 2.0023532374802437e+00
      -1.3530040498749816e+00 1.8284154715389256e+00
      -1.0479274699200039e+00 -5.7224383577169224e-01
      3.6597701115511411e-01 9.0323852012953454e-01
      1.0084905083563127e+00 5.8558165651253635e-01
      -1.0393492557594097e+00 7.4538534058921646e-01
      4.6899472976194045e-01 2.3002059986497709e+00
      -4.0500933736824063e-02 6.9204105729343957e-01
      -3.6796733104902501e-01 6.8998822060650744e-01
      1.2152511660196801e+00 1.4033404530820868e+00
      -9.9524164621734534e-01 -4.2082857337288454e-01
      1.0017205431085896e+00 -2.2242615823996155e+00
      -5.4000503227435892e-01 -8.8243180318941017e-02
      1.2331639029132857e+00 1.0173001232576877e+00
      -9.2926686722254376e-02 3.0323551210803852e+00
      6.3845552421695442e-02 8.5088808687901674e-01
      3.7247403069686666e+00 -8.6789434409081079e-01
      -1.7172330698503327e-01 -6.0978396081660412e-02
      1.0681760925891086e-01 -6.0430332534245312e-01
      -7.4848339278447418e-01 -1.5233119892343978e+00
      2.7954167214549548e+00 3.9508044164166684e-01
      1.4057046802256343e+00 9.9209376262200166e-01
      1.9590034368242862e-01 1.2276300236477934e-01
      2.8572824087224422e+00 -1.1915752827252055e+00
      6.3983500319300868e-01 -2.4800412242469063e+00
      7.2617208063462357e-01 -2.7489817428247421e-01
      -4.4644187026459015e-01 6.8180720055881688e-02
      8.2500490207928023e-01 2.7589399343973880e-01
      1.4855665240981655e+00 5.2964695872638679e-01
      -2.1666490967860361e-01 2.5583889726315684e-01
      1.5898639728509447e+00 -5.3602092117979727e-01
      7.3370667590412386e-01 -1.9413230536870263e+00
      -1.9672118969841268e-01 -4.8740322938931782e-02
      -1.6473579121108524e+00 -1.9728680510407048e+00
      -5.7221450780909155e-01 -5.7006399552383791e-01
      7.9732909198936108e-01 -8.2433513644273859e-01
      7.8115042079308838e-01 -4.8372679462547713e-01
      1.7044866482391214e+00 -2.1092900595071802e+00
      1.6074795860897315e-01 -4.1884490052492369e+00
      4.0269380276058991e-01 4.2553114642996492e+00
      -1.2339520799827850e+00 -4.3987291051684885e+00
      9.7648292400357140e-01 1.6901139108200398e+00
      -3.0760345380099763e-01 6.9896524751547973e-01
      6.2877856685066802e-01 -2.5106198333330981e-01
      3.9062921622539269e-03 9.8563555964688687e-01
      -4.8033499817463893e-01 -2.9230696048608946e+00
      -1.4184705485477529e+00 9.3521191891369104e-01
      -1.1330803131588751e+00 1.9583456655900564e+00
      1.6347526318376480e+00 6.2681983272873132e-01
      -1.1242175212150513e-01 2.4619968041559379e+00
      -2.5899241667329487e-01 -3.0184151802293755e+00
      -4.8198204070008688e-01 2.4288081355381178e-01
      -2.5490191152403403e+00 -1.4107472543662927e+00
      -7.7974070358644454e-01 -1.3086121460245423e-01
      -3.7614499204625068e-01 3.2410410381734844e-01
      -1.2430068226848439e+00 -1.4961494275280183e+00
      -1.8016980137000334e+00 4.4276789579444020e-01
      -4.5489321724870851e-01 -3.8371986465475194e-01
      1.7190139030643576e+00 -1.6693563306759743e-01
      -3.2689479770145927e-02 -2.2471374201201950e+00
      1.4425971625823815e+00 7.6820128041866764e-01
      1.3436984889669301e+00 6.3747648904055887e-01
      7.7045713535447691e-01 -1.0488195709264956e+00
      1.6527512065596139e-01 1.0257354363410309e+00
      7.6819795293937665e-01 4.0225447549146820e-01
      -1.6336975878339974e+00 1.8732775858346570e-01
      -5.5926805550846936e-01 6.2851557031782379e-01
      -3.3636887239218016e-01 -5.7017323225950756e-01
      1.2484989517952301e-01 7.9098460083505051e-01
      -8.2253104836233693e-01 1.3835660398563996e+00
      8.3074337756672068e-01 2.1676613977589324e-01
      6.1295077073389159e-01 -4.4390614923509120e-01
      -2.6512927943774001e-01 -1.0954248165173931e-01
      -3.0888004107146694e-01 2.8099885937265139e+00
      -1.4913518321008772e+00 2.5520623152593349e+00
      -3.7541159926584999e+00 -5.6043781313321139e-01
      -1.3534796096485109e+00 1.1719769356530636e+00
      -1.4145763737332750e+00 -7.6815817595527791e-01
      2.4163940554561707e+00 -8.1773676287958541e-01
      -6.9151014842272407e-01 1.3369565747148147e+00
      -5.1118522643752806e-01 8.3936285789673859e-01
      8.1436539326316149e-01 -2.7236400349911136e+00
      -3.8143981968039373e+00 -2.8005490532717581e-01
      -3.5130398776716970e-01 9.9117196901362647e-01
      -5.1475452240293751e-01 1.7824666305994552e+00
      1.1262700026679999e+00 -9.7947282310745210e-01
      -1.0333242196342848e-01 1.9316027515320642e+00
      -1.2341178217330269e+00 1.4797922056026355e-01
      1.3637680912887340e-01 -4.8084795718812123e-01
      7.6439290568504592e-01 5.0653189734323434e-01
      1.9316565713994589e+00 -1.3058664395088473e+00
      6.4747348646802938e-01 -1.7649908958890279e+00
      -4.2901248522367752e-01 -3.8846723204288520e+00
      -8.8244525621587522e-01 2.7208086754184857e-01
      -3.5019187946408294e+00 2.7036973461981848e+00
      -1.2207571553758760e+00 3.4858546501829584e+00
      1.5137932997831327e+00 8.7117919265437138e-01
      -1.0483089132759646e+00 -4.5130883559888085e-01
      -9.0416051373775630e-01 -3.1079579992562714e+00
      -1.1569948788577016e+00 -2.4461836677840161e+00
      2.7490971013054701e+00 -4.1011166920420838e-01
      1.1812050914675258e+00 -8.9519945273648782e-01
      -2.5028572359491643e+00 1.5658273924181518e+00
      -2.2862510568189838e+00 -6.8962317275193086e-01
      4.2720932355544833e-01 -1.4355800290036511e+00
      1.9585921222321816e+00 7.5176352118412071e-01
      -7.2414850348895702e-03 1.2038987042675289e+00
      1.8568780740977839e+00 -2.3715594121872634e+00
      -7.0362271257414799e-01 2.0696337945524143e-01
      6.3293763189396635e-01 1.4449244507312136e+00
      6.3637000906991503e-01 -3.3980533990985422e+00
      2.4895394527083812e+00 -3.0317363173214329e-01
      6.8194760433783874e-01 2.4450238203939310e+00
      -2.0744270093986117e+00 2.1977386171110442e+00
      -1.5690717644965531e+00 -1.5976765434395601e+00
      -5.8293531278174104e-01 2.7823571518684354e+00
      4.0143295290321251e-01 -1.2822632664534270e+00
      -2.3323965288011531e-01 4.0395269328121985e-01
      2.6198076806586621e+00 2.2495217251012165e+00
      -8.7051474606760737e-01 1.2580954113669995e+00
      1.9527349598160554e-01 -4.3148018742764682e+00
      -1.6364707713974886e+00 -8.6565708787057061e-01
      -1.9757885569621538e+00 -5.2513859265962581e-01
      -1.3879071038161415e+00 1.2406315985154091e+00
      -3.8715575817215664e-01 -4.0379732152875309e+00
      -3.1941410202452172e+00 -9.5350206360396941e-02
      -1.9657634762270499e+00 -6.2029190132558765e-01
      4.5848400278366661e+00 5.0010854175338282e-01
      -1.3040214558633362e-01 -7.2569927999796358e-01
      1.9439213926369916e+00 -1.9593993613774576e+00
      -1.2192083217447147e+00 4.0310519754601160e-01
      6.6738119013032499e-05 -9.0119715721653004e-01
      -3.7770110715859068e-01 -3.6321187865956146e+00
      -4.6859180875993278e-01 -1.9246694869030330e+00
      2.6416284411260665e-01 -3.5285157788118732e-01
      7.0861171654307353e-01 1.5388075833935846e-01
      -1.1853985614824185e+00 6.5454705394908275e-01
      -5.3483190006901626e-01 5.1212045087376618e-02
      -1.5665656563253201e+00 -2.5890524062116356e+00
      -7.1992741166720720e-01 -2.9641292370444612e+00
      4.6086729278617089e-01 -2.8176752091090462e-01
      3.3324102815685436e-01 -1.9708512769736608e-01
      -1.4229677543522838e+00 6.5585242642176196e-03
      1.3530073522069788e+00 8.2401700069326833e-01
      7.8123947004960864e-02 -1.5101880667857717e+00
      1.5963113542987446e+00 -5.9975783946812733e-01
      -1.3632933517346684e+00 -3.3466601076196856e-01
      3.4740819533769489e+00 -9.0459891019575944e-01
      5.5292677920387168e-02 4.3835613438684173e-01
      8.5135187889406649e-01 7.2781045395314392e-01
      3.2459842061606303e+00 -4.1874586482927523e+00
      -1.1855417965393016e-01 -1.9223967048104462e+00
      -1.0993687098424794e-01 -3.7052534543909071e-01
      -9.9908603130893880e-01 1.3042584583164230e+00
      1.9093094703835425e+00 1.7403419465804895e+00
      -9.2061716068655153e-01 -2.1320989869522200e+00
      -2.2839152633706314e+00 1.1618740948258817e+00
      -5.8183200688251613e-01 3.0542729406945951e-01
      1.1424112509500295e+00 -2.7492161157483186e-01
      5.3996753579303092e-01 2.0527946271288577e+00
      -1.7643132520196239e-02 -1.4059007833595987e+00
      1.2383958154562944e+00 -1.3759159891092780e+00
      -2.4381906340562942e+00 -1.6538748325043352e-02
      -3.8674968301257278e+00 2.6383114678887409e+00
      -1.4541054110944187e+00 -6.0266507398138536e-01
      6.1178530369748163e-01 6.1597263411577297e-01
      -2.3013267368832424e-01 2.5819381893664606e-01
      -1.3718453093006806e+00 -2.5031543446421424e-02
      -6.5151993392429530e-01 1.9232110171173409e+00
      1.5369928685982140e-01 -1.1457342005247499e+00
      1.7285814822854726e+00 -3.3158649600887968e-01
      -9.6899241655545221e-01 -1.2836931229762791e+00
      -1.2863796654596751e+00 -1.2734095709971855e+00
      -1.6445520253072334e+00 -1.0901607247858573e+00
      -2.9377529869482135e+00 3.2001965174453528e+00
      -2.0506666773509283e+00 8.9925241304388781e-01
      -6.6391657724631525e-01 -3.1393710806096375e-01
      9.0653637131290890e-02 1.7062842474219979e+00
      -1.3870228038312320e+00 -6.0804872526382259e-01
      5.5291188112943968e-01 -1.3019506089843811e+00
      3.0627652288713586e-01 -5.0724768046760571e-01
      -1.6021413682274392e+00 -1.8960452406654116e+00
      -1.7502438203716681e+00 1.1780088947845460e+00
      -3.5323434839992700e+00 -8.1917623740992185e-01
      2.0333969595412977e+00 -1.2502717183722123e+00
      1.3411155710972162e+00 3.6303912032834313e+00
      -4.4569230106408075e-01 1.8425614431679820e+00
      2.5681735518025266e+00 -1.0754637460995380e+00
      -1.3536296557793134e-01 1.8198201284591859e+00
      8.1373201896519975e-01 1.1088419884564375e-01
      -2.2006263436529391e-01 -2.6542299635705509e+00
      8.0094778111488629e-01 -2.0487617966716720e+00
      -9.8330520583661452e-01 1.6537002032397115e+00
      -3.2354635758533118e-01 1.5409667378187126e+00
      2.7966630357706723e-01 9.0732513031346673e-01
      3.7277937762994690e-01 1.4894872349730222e+00
      2.2332619137464002e-01 1.2640432060384799e-01
      -1.2121500267616443e+00 1.5183551815083938e+00
      1.3960610884345244e+00 -1.6919105553608687e+00
      3.0064600798143548e-01 -9.3891844495090004e-01
      2.6912440332822105e+00 1.1086710621376680e-01
      -4.7804230034377202e+00 1.7399658292799296e+00
      7.4408186228748385e-01 -3.7951877283861699e+00
      1.4942848017381447e+00 -9.9869681053513171e-01
      -3.5817917392370084e+00 -1.4985280002601001e-01
      -4.1174012395567283e+00 1.4728239878035565e+00
      -1.5630783157277297e+00 -2.5788070440233732e+00
      7.9002974139476090e-01 6.1108255924889332e-01
      1.0137850048070689e+00 8.2651341233391784e-01
      5.6315472479539319e-01 1.0875001957195056e+00
      9.2089496090441014e-01 5.9616976418599399e-01
      -2.4649287628317456e-02 1.9999095560773905e+00
      -8.4700234494055460e-01 7.3900298342623161e-01
      -8.5355423086942250e-01 3.3888214903520306e+00
      3.2381153467159601e-01 1.0572840689556234e+01
      2.4988664780995924e+00 2.1020535030231444e-01
      -1.8702929648713733e+00 -4.0506049298806590e-01
      8.0056401907775521e-01 2.6855582126072053e-01
      -2.2837359493550569e-01 5.8663015435852339e-01
      1.9909874854186647e+00 2.6349618626637983e+00
      1.9785765672735514e+00 -2.0447800738060282e+00
      1.1836473646883867e+00 2.5936739453657078e+00
      -3.9790137344249160e-01 4.8793921552614569e-02
      -2.3635126674223570e+00 -3.7050502671921337e+00
      7.0848479847105206e-01 -2.1945053644517745e+00
      -1.4109150802689776e+00 -9.7469225299502971e-01
      7.2884966809612362e-01 -2.6016795514517721e-01
      -2.6018185753420697e+00 -5.1481938386769839e-04
      5.4942346799165831e-01 1.6748108207715697e+00
      9.1710130129951072e-03 6.4792312584046510e-02
      1.9279915310588005e+00 -6.7016082158727164e-01
      1.3836761814582879e-01 -2.4632989482345757e+00
      -6.8728000723344507e-01 2.1996244038537746e-01</_>
    <_>
      3.5078162564879373e-01 4.7372727877767371e+00
      -1.0277773969190129e+00 -2.4049147261060669e-01
      8.8737713009771513e-01 -7.4608499345076906e-01
      8.1044639128276738e-02 -3.7157001402393652e-01
      5.6605553643555684e-01 8.2201943966696644e-01
      -1.0232586549300950e-02 7.4462566250062784e-02
      2.0674849126859294e+00 1.3723323058078458e+00
      -2.4377134368460021e-01 2.5415100969108435e+00
      -6.5778775797764855e-01 -9.3855003581828400e-01
      -9.3947003078355917e-01 1.5704803935530678e+00
      2.4340998196098015e-01 4.5866818992455451e+00
      5.2309664007625725e-02 -1.7224692727587716e+00
      6.6003177997848461e-01 -1.9658446768535811e-02
      3.3631349954544429e+00 -1.1937464752723882e-01
      8.8054883682345091e-03 -2.4232086522364773e-02
      -6.3829434532904550e-01 -1.2793448426369165e+00
      2.4662596546483218e+00 -4.2211127467773818e-01
      7.0370554306786737e-01 -8.7674693497659595e-01
      -1.5654454468621952e+00 -2.0585323095108723e-01
      1.1129541325514083e+00 2.0535975289890787e+00
      -4.2735544775070283e-01 -6.1798046464689520e+00
      -3.9015601330050781e-01 -4.6660127098899379e-01
      -5.2106815957058561e-01 -1.1133355334131209e-01
      1.1448049968927966e-01 -6.3378402442399562e-01
      3.1574391286764253e-01 6.9354010480383577e-01
      -3.3553446565620432e-01 -1.3159365108604110e-01
      8.6762886217750856e-01 -9.4535390733254371e-02
      -3.7512987667572745e-01 -1.0553384777706118e+00
      1.2437944826823968e+00 2.3154968967848882e-01
      -1.4734575027698743e-01 1.3949038551506314e+00
      -4.7436296443933634e-01 4.8331913567540266e+00
      -1.2215764048113897e+00 -2.0365445122469010e+00
      -1.1701275049907125e+00 3.9659055748802935e-01
      -1.5154846467748118e-01 -7.6708030138321104e-01
      4.7606538404956857e-02 4.1053770029040065e-01
      -1.3312315584695569e+00 -2.1905417922514916e+00
      -1.8810837722567122e+00 1.2597656616270856e+00
      -6.3033401221705176e-01 -5.0419874275045471e+00
      -1.8855537349360223e+00 -7.9376253336799463e-01
      -4.0467426203132391e+00 -1.7292709882177859e+00
      -1.0262410385497525e-01 5.5044632510015070e+00
      2.9343547157545119e-01 -7.1070055782415953e-01
      -7.8250325267732035e-01 4.2046030602657442e-01
      -1.8215058430592526e+00 -6.3018399690428983e-01
      -3.9637703871258728e-01 -4.1627481258989935e-01
      -6.6831071246604334e-01 -1.2971261061056333e-01
      -2.3134009723527975e+00 -1.8104762559482452e+00
      6.6982781548004600e-01 -1.5311386781984284e+00
      -7.3710376012355305e-01 8.5738663802095749e-01
      4.0683834696967364e-01 1.2448897017902538e+00
      4.5745969265956454e-01 3.0211745385209303e+00
      4.5272695942388536e-01 -5.5976291527197519e-01
      5.2195745009030903e-01 -4.4666721348111765e-01
      3.2819147974253546e+00 -1.8039372448270341e-01
      -3.5298591991195174e+00 4.0171525916487894e-01
      2.0339456135085365e-01 1.4781927797608612e+00
      1.0834089342427780e+00 -1.6308675145466485e+00
      -1.2962865557367775e-01 2.2051574080716796e-01
      -1.1255615124669132e+00 -6.4972247425428420e-01
      1.9089559193839378e+00 3.7411649368437155e-01
      1.7240186587851274e+00 -4.0315908626284260e+00
      9.1534851836227105e-01 -2.3598855420792819e-01
      2.3784831701002149e+00 8.5647753383465597e-01
      -6.6106014186824047e-01 1.3874167444688912e+00
      -1.7408157977029057e+00 -1.9719147850570782e+00
      1.1826933481164434e+00 1.5926947015125148e+00
      1.7790029558131608e-03 -3.7984358020845232e-01
      1.2610271953889287e+00 -5.2521826918411740e+00
      -2.4106316659102336e+00 5.0123558061239748e-01
      -1.6867365195141565e-01 7.8486816321245911e-01
      -5.0530642764255496e-01 1.9981047360712811e+00
      4.9493031735732124e-01 1.6960376374158885e+00
      -9.6460340330443084e-01 -1.1106701689501358e-01
      -9.6349276484124502e-01 3.7482396275912672e-01
      -4.5409572524501446e-01 -3.7912886042108684e-02
      1.1624167413470186e+00 8.0571415730872897e-01
      1.5825375962077464e+00 8.0580283202116423e-02
      -1.7073536182450659e+00 -7.3231924488605549e-01
      5.1040888360402958e-01 -8.9661174138847011e-01
      3.1018776388162039e-01 1.8311875019599466e+00
      5.2575974972265427e-01 1.6641520306870061e+00
      -1.1972332830264758e+00 -6.5114699243473684e-01
      1.8976490065831269e+00 -6.6646068931127078e-01
      9.5188681227175151e-02 -3.3829708143430443e-01
      1.7963941895709282e-01 9.0672197260759779e-01
      -6.8191708289390240e-01 -6.2367142847769863e-01
      -8.5970921362152319e-01 -2.9442291599185250e-01
      3.8291177697195439e-01 2.5460827329396873e-01
      -8.1050746994027034e-02 1.9803710060998828e-01
      1.3205407238473645e+00 -2.2448075840530560e-01
      -7.4841114110710505e-01 5.6574862623113722e+00
      3.3640043091265637e-01 4.9736423532568824e-01
      -6.5749631551293020e-01 -1.2103999077430552e+00
      1.4488525293762502e+00 -2.8272803069626240e-01
      1.4817522011056596e+00 5.5403163209488493e-01
      -5.8385630834771474e-01 -9.2585352161954126e-01
      4.6137314479813163e-01 1.3346983696165049e-01
      -7.0007504656281383e-01 6.1638444338650666e-01
      1.4645595017225053e+00 8.1156365017306931e-01
      3.2478143987240682e-01 2.3104678427093521e+00
      2.0670681194768314e-01 -3.9253655485835761e+00
      -8.8048187517586318e-01 -2.3553245472749680e+00
      3.2828835578793608e-01 5.6570890439059551e-02
      -7.9392057241582892e-01 -1.3080760731992938e-01
      1.5209462825628135e+00 6.6725582118971227e-01
      8.3631283575616266e-01 -2.2165065178231353e+00
      -2.8206883484052581e-01 3.5769994987218641e+00
      -5.8132177362090065e-01 -5.0621184313338952e-01
      1.8106529494258197e-01 1.5975850766987743e+00
      3.4382620900807392e-01 -3.7301252341881153e-01
      -1.3935818583219948e+00 2.9739631660728008e+00
      -1.3053589540022408e+00 -1.9702283312728071e+00
      -1.0321669970342930e+00 -5.6882634664654619e-01
      -1.5158502644431615e+00 -6.5830898906324631e-01
      1.3437172668951645e+00 1.2578333264972781e+00
      -1.1074386545464088e+00 3.9340611879762899e-02
      9.3037424017962667e-02 2.3761630382771850e+00
      2.1769529089469584e-02 2.6971547738921258e+00
      1.4063505271358767e-01 -2.0051247073590687e-02
      6.5520083520727457e-01 9.0857612249034669e-01
      -6.4473017711220437e-01 4.1585854313637451e+00
      -7.9234897859142506e-01 -1.0589365714780730e+00
      -5.2487152411278637e-01 -6.9975900204679520e-01
      1.0765210126088411e+00 -4.1643638188277582e-01
      -3.3313464986928371e-01 9.1408811775997822e-01
      -6.9945917457257756e-01 -1.6357438959021386e+00
      3.6246872161315991e-01 -4.6830253692299417e-01
      4.8681680320592152e-01 -7.5989587359116251e-01
      -4.1801950130374022e-01 -1.5677955175310037e+00
      -1.2437433482345289e-01 -1.2555603889604336e+00
      -9.1906303532370462e-02 1.1957160770925954e+00
      -1.2121447647986121e+00 -9.7464616834439777e-01
      1.9454631073860001e-01 -3.3900127142916864e-01
      -3.0362093586971293e+00 -1.0969355796428470e+00
      2.4178948036220040e+00 7.5813315030328943e-01
      -1.5190222695629145e+00 -2.7657847942248664e-01
      1.9437097990522714e-01 2.6434540813084659e+00
      2.7251304630378442e-01 3.1814103874548687e+00
      2.3019946146801859e-01 -4.8693329400527902e-01
      3.3401393360460903e+00 -1.5568603362981961e+00
      6.7402217898772732e-01 5.7917629571526223e+00
      -5.4559977428530237e-01 -4.8177659430959108e-01
      -1.5812927152792235e+00 -3.0181144120939779e-01
      5.2904979336918290e-01 -2.5939885719724942e-01
      1.1048218914200509e+00 1.0630946523063800e+00
      -6.5420745238664230e-02 7.1901118649154716e-01
      2.2550687562082508e+00 -1.1711499187795175e-01
      -1.8787653265471156e+00 -6.8905891451317758e-01
      -1.3768163935902614e-01 -1.1403855580425353e+00
      -4.8241553741046583e-01 1.3105099103775255e+00
      6.3156753971426471e-01 -5.1947335559421548e+00
      1.0432956805543652e+00 -7.7190902831525554e-01
      1.5184182644084738e+00 5.2471322898858186e-01
      -3.2948109332717594e+00 4.6443731575053532e-01
      1.9446238673674948e-01 -9.7374791159529672e-01
      -8.3992132984544152e-02 -3.2242184131344398e-01
      1.0100883318266540e+00 2.0199746527333211e+00
      -1.7783529496284409e-01 -2.3546645965258148e-01
      1.4966653704705641e+00 5.9799256610114548e-01
      -1.1347715680751946e+00 -9.7072568546490334e-01
      -8.1727413919783409e-01 4.2950504005991996e-01
      1.6757571647009287e-01 -1.6045602580702234e+00
      -1.5791132971381976e+00 -2.3373306948687458e-01
      1.0612262349444954e+00 -2.7735295727421760e-01
      1.9671832126655478e-01 1.2101613021229825e-01
      -1.4531298457643043e+00 -1.8786146760808704e+00
      4.0625638177112033e-01 1.8155972097880919e+00
      -1.0307059115051735e+00 5.1934671073106997e-01
      3.3777338577694898e+00 1.3745250177642252e+00
      1.8294986344878676e+00 4.7307209482738993e-01
      -1.3030337742618311e-01 3.7744982650695182e+00
      -8.6674020627350679e-01 -8.4453074824590879e-01
      -1.2765892238566161e+00 2.8108542345238935e-01
      -6.5645643129562836e-01 -7.3108566182404411e-01
      5.6612038010146659e-01 -2.4068236399557666e-01
      1.5049816000707958e-01 3.3151301597171323e-01
      5.9882721374760028e-01 3.4378056721805428e-01
      2.7771438328965009e-01 -1.4865999009431989e+00
      -2.1000555461949647e-01 -1.5760995115760554e+00
      3.6389422562904633e-01 6.4586508502082285e-01
      -2.5841888524709095e-01 -3.6563882894353172e+00
      -1.3999472983189801e-01 -6.7117326887719142e-01
      8.7437311800057527e-01 2.1334413196707865e-02
      9.6759846893520463e-01 -9.2635820568815433e-02
      2.8954055310429538e-01 -6.3418350360669606e-01
      -3.8307264253267481e-01 1.7170901223070995e-01
      -6.9927966804570962e-01 -1.5176772714292344e+00
      1.0481937599927353e+00 5.4882254923508167e-01
      -7.9959775374160691e-01 -3.7915821106258035e-01
      -9.6416129197710310e-01 -2.5797816810416716e+00
      -4.5253942885242232e-01 2.0094940705175954e+00
      7.8605917876023101e-01 4.2266496680172011e-01
      -3.4260289819916012e-01 1.6535102741796559e-01
      1.5035050121090643e+00 3.6183517767354911e-01
      2.5209588807150751e-01 -3.0679135083519099e-01
      -2.2772292613034411e-02 7.4698452385816050e-01
      -2.4635624336936037e+00 -1.9130787955784512e+00
      5.4739438897010995e-01 -2.2303984955062528e-02
      9.4260788485071634e-01 4.7057571322531266e-01
      -3.6215190680231163e-01 -1.8448502083402210e+00
      -1.2140940923023940e+00 1.7354343644583221e+00
      -7.2521064497297272e-01 5.2612933270291748e-02
      3.0850638817785190e+00 -2.7904405994722681e-01
      -1.8882645631170745e+00 -5.3888954365019270e-01
      9.6757320260783419e-01 5.8819175203464802e-02
      -3.5133290457403085e-02 -1.0685972103610843e+00
      3.8504105440580844e-01 -9.8004295380889384e-01
      1.7563794263330690e+00 3.3352972147602706e+00
      -1.3865609322708357e+00 1.5656597724397994e+00
      -2.0046044993853309e+00 -1.3328839968390884e+00
      6.4126372394241993e-01 -3.6416813466530904e+00
      4.1505657963805280e-02 1.4634159158112257e+00
      -2.2959574758756269e+00 3.9017622625172010e-01
      -2.9067434611185314e+00 5.8551865797597809e-02
      -1.0991277305281610e+00 1.5387065617022777e-01
      9.7827614987960099e-01 1.5729661151525314e+00
      3.6442612368245614e-01 2.1863313616390854e+00
      -1.6664748565917435e+00 -2.5057423257901168e+00
      1.9581444112547980e-01 -1.2945707657222996e-01
      1.0990298345832870e+00 2.0118030540492087e+00
      1.5155599643338444e-01 3.7801808900470042e+00
      1.1640977839001387e+00 -3.8834490072903438e-01
      1.4314837740180519e+00 2.1277177042312517e-01
      9.7628083838827251e-01 3.2428503912914164e-01
      -4.8722185940840551e-01 -3.9426024771598323e-01
      -6.5233888994220535e-01 -1.2818807777420355e-01
      9.4190631805765690e-01 -3.3614026338294278e-01
      9.6284021562652866e-02 -1.4401113609715746e+00
      4.7835358137218775e-01 -5.0447876335223918e-01
      -7.2110721616794304e-01 -1.5326305750449518e+00
      -6.0463290994935581e-01 -1.9022327043668164e+00
      -6.0511155291329066e-01 -9.6569151689828159e-01
      -1.5130769663549544e+00 -1.5021782709805667e+00
      -1.1270057430466038e+00 -4.4818431468777414e-01
      1.7873423226339833e+00 4.5287660238749794e-01
      -6.5101952944545238e-01 -1.1979563857989792e+00
      1.1487640983992471e+00 2.9759062797858243e-01
      -1.3848102770286039e+00 -8.7252985672390571e-01
      -1.0075370102170147e+00 -3.0733466166377743e-01
      6.9512578130503017e-02 3.8692250756321918e+00
      9.9444568894339425e-01 -2.1970951465483992e+00
      -9.5449864476564406e-01 -5.4921128776423256e-01
      9.7842517173855981e-01 3.2492263189116011e-01
      7.8048778606882896e-01 9.6603667989870268e-01
      -2.2049875576023448e+00 6.8965878702295758e-02
      8.0274310134449745e-01 -5.9541431853369042e-01
      -1.3425749234970688e+00 -3.7463124925278013e-01
      -2.8496516605338734e-01 9.1766811776595703e-01
      -4.7259157526251971e-01 9.0244029875983706e-02
      5.5218917891973673e-01 -9.7874095244073833e-01
      -8.7513014888437368e-01 -2.6825527238081994e+00
      -1.2305100308883357e+00 -1.8542898438238578e+00
      2.1834772148806728e-01 -8.8854940623286283e-01
      6.1016278122727363e-01 -3.8199701582342438e-01
      4.0892321299186685e-01 1.1021684700068430e+00
      -4.2713139544529342e-02 -1.6815190082765941e+00
      -5.8514156248781790e-01 9.2639677032451062e-01
      -1.0857600485495844e+00 -6.5528513442208491e-01
      7.4517667811439325e-01 1.0789495802551159e+00
      -1.2092769552257603e-01 1.5856827067368002e+00
      3.4111799395090497e-01 8.2223332883907518e-01
      -9.2288241460752360e-02 -8.1730025883474167e-01
      1.8369300202861412e+00 2.0078213029481509e-01
      -3.8366394815891114e-01 -8.5952273197337392e-02
      1.1689487382263204e+00 -5.5427446002691427e-01
      1.9226334778313900e-01 8.5518349699217322e-01
      -4.0145786423569768e-01 -6.6459062968334792e-01
      1.0276988902910842e+00 1.0018747316697183e+00
      6.6544961874922148e-01 3.2034196987755542e-01
      -1.9583273998691599e+00 -1.3192588729368022e+00
      -6.8065744844533038e-01 1.4291459247094331e+00
      1.3507215491559385e-01 -5.5525857737254247e-01
      -6.2679653949029690e-01 -1.9556323152900529e-01
      6.5988104590607832e-01 -3.8240644450283601e-01
      1.1524103623926991e+00 1.4570287590192885e-01
      -1.4005377923185585e+00 -2.9880944698934259e-01
      4.4960697161380953e-01 -1.9900827846955176e+00
      1.3239477857621099e-01 -1.3064832078424307e+00
      5.7613056077348124e-01 1.0308642357272395e+00
      1.7075117683310689e-01 2.4809559027684318e+00
      -3.3289804909417103e-01 -4.9845378101228279e+00
      -4.0033301905981605e-01 7.9232506506771549e-01
      1.6084138166422746e+00 5.7603928366481394e-01
      -1.0552090647347205e-02 3.4289652492806960e-01
      -1.0825655119591762e+00 -2.6180684029716995e-02
      6.9883475005691575e-01 5.0536858133774365e-01
      5.1666033500183639e-01 -6.8350150514288255e-01
      1.2682543792026315e+00 -6.5281815910285621e+00
      -5.4072776751077345e-01 5.2237800411475055e-01
      1.0014682413756076e-01 -1.0895152631634417e-02
      4.2118258315979029e-01 1.2493436450665922e+00
      2.8663403118388814e-01 -3.5599241999833880e-01
      2.4646699216917747e+00 -3.5213083624525021e-01
      -1.2187100404888642e+00 2.1941170221637940e-01
      -4.8438719166986827e-01 2.4671348829305342e-02
      1.2422417632493243e-01 1.6558889153678910e-01
      7.7322261935409264e-01 4.8438335911036168e-01
      1.0598852199999944e+00 1.4224392764417565e-01
      -2.4969442070752471e-01 6.2218927960694359e-01
      -3.0102166038381978e-01 -5.5012957919235062e-01
      9.7518918644547381e-01 1.3019601566367800e+00
      -7.8061786956183565e-01 -1.0564522115365940e+00
      6.1721028281737944e-01 1.0828376698227041e-01
      1.1855641083228137e+00 -5.9010771226610970e-01
      -1.2963956066903555e+00 6.8723593849153175e-01
      1.1506903131768970e-02 -5.8955736213034471e-01
      -1.3790299583792318e+00 -5.8479085612107828e-01
      1.0078094904096053e+00 1.5873512578442566e+00
      -1.9603466941431378e+00 -3.4241235735712644e-01
      -8.4805960724483798e-01 -1.9244494194028585e+00
      -6.5720093521529543e-01 4.9948322412301076e+00
      1.0797641598594825e-01 -2.1742356184791772e-01
      2.1045527598390035e-01 -1.1117236561347899e+00
      2.2327663812698391e+00 -2.0202029849072836e-02
      -3.6804419898267959e-01 6.4957663137504840e-01
      -6.9794987347543547e-01 2.3106396463376602e-01
      -6.0893741631003229e-01 -1.1412999437350069e+00
      -1.1156322588565613e+00 3.5509085101920554e+00
      1.6325361536467606e+00 6.6206421335722376e-01
      5.0577175074530556e-01 -5.2775758553543095e-01
      6.5042561826753165e-01 2.2143365438928759e+00
      1.0880796582550796e+00 6.6238230637990136e-01
      -6.0346910403275988e-01 2.3007157991185032e-01
      9.9825813622865411e-01 7.9220124020239757e-01
      -2.5244356263321839e+00 -8.7016572931238523e-01
      8.7159170503750527e-01 5.3673107944558540e-01
      -1.7100748004316204e+00 2.5101936853503848e-01
      6.2980947182006794e-02 -6.1792192220098552e-01
      4.9114355061653253e-01 -1.9652245586982917e-01
      1.4091305607078466e+00 8.9905141617369222e-01
      -4.3126902589558302e-01 -5.6174222626409156e+00
      1.6039712552426435e+00 -7.4043460705689845e-01
      -7.3362520926742836e-01 -1.0909429623226452e-01
      2.1683074510118963e+00 6.1011544590550326e-01
      -1.7234539561328772e+00 -7.0929624511037304e-01
      1.1793067616752084e+00 -1.3117021575063270e+00
      -1.8471566127417598e+00 -1.9899890215524647e+00
      -1.0374270398237435e+00 -9.0347395419761611e-01
      8.3984040081461520e-01 6.4971941369834030e-01
      1.8596692137583162e+00 1.5545655230841540e+00
      2.4215939380286880e-01 3.8655450431338081e+00
      4.3496838842025765e-01 1.7812137486739792e+00
      -1.3191193029556372e+00 1.0984112847956823e-01
      7.3597993636955938e-01 5.3516488171558785e-01
      -6.3174327803206642e-02 3.6033755934635897e-01
      1.3251060817509772e+00 3.8272864318231231e-01
      -4.8133700275514080e-01 5.0712505871842017e-01
      8.8702484852996644e-02 1.0776133440759843e+00
      9.9477698290266370e-01 -3.7766738768135710e-01
      3.9282021682459929e-02 3.0727399980497144e-01
      4.6607555254569155e-01 -1.6346167992875893e+00
      -9.3293501931019041e-02 1.6097943712414645e-01
      5.5904357845686081e-01 2.1707121707571664e-01
      -2.3742460615164451e-01 -4.3136706761324473e-01
      1.2557377991656660e+00 -9.3703560349917309e-02
      6.9028892458391056e-02 9.1708055641452313e-01
      -7.0960654596758532e-01 2.4613441424538454e-01
      5.3423727979677105e-01 3.3686257521261571e+00
      -2.0262672057260533e+00 -1.4768366159484234e+00
      -1.4451149396965983e+00 -1.5252641442491464e+00
      -5.2280361013873522e-01 9.2563027822481270e-02
      1.7089487744184066e+00 5.8812793841718647e-01
      -6.4658750208570137e-01 7.5838645272507899e-01
      -2.4455829757268616e-01 8.1038702608400348e-01
      8.7843009611330070e-01 -1.4493759790831420e+00
      7.1601119930020007e-01 -2.3816216913077549e-02
      -3.0056176600227809e+00 9.6720679972045909e-01
      1.9119575190709714e+00 -1.6905874587299152e-01
      -3.6088638738850926e-01 1.4809001155885961e+00
      3.6549515030331053e-01 -3.0751186617421498e+00
      -3.3387458583501020e-02 -4.7345559016107774e+00
      -2.2637906841313471e-01 -5.2931483793862522e-01
      2.8073528699154764e+00 -6.1898093872478954e-01
      -1.4557082533003256e+00 2.6703719512818458e-01
      -6.0472208556779761e-01 -1.3568328927280401e-01
      3.2167883586472223e-01 -3.7310309725707586e-01
      1.2655393772304571e+00 -6.7599139027736344e-01
      -2.6835532674525242e-01 4.8629461546098801e-01
      -4.1991041802130863e-01 4.9049552563054960e-01
      -5.7054937894869484e-01 1.6777769804008638e+00
      -1.9562174784271837e+00 -9.3198932582319127e-01
      -8.2520963183364693e-01 -2.9024776880249931e-01
      -1.8532320191007934e+00 -3.6642688057292438e-01
      -1.3286794132562976e+00 -1.1185207507772326e+00
      6.2711918984053050e-01 6.9363046368193582e-01
      -8.4089404489109398e-01 -8.6455064538903870e-01
      5.7428566867024211e-01 3.7739702734146552e-01
      -9.4946075019964188e-02 -3.0416111742757174e-01
      -1.0176426368930009e+00 -1.9957881993795037e-01
      -9.4876213366200626e-02 3.5273998094096721e+00
      -1.7835894542911579e+00 1.2548642211117682e+00
      -2.8643378578110279e-01 2.5178216589031583e+00
      8.8357909907243759e-01 -9.1826478739685224e-01
      -8.5649197299825441e-01 -1.0348835178910203e-01
      -1.3073255661428969e+00 6.3077623016982709e-01
      -5.3516919297444521e-01 2.9656068444100525e-01
      -3.4111818634172324e+00 -2.7421644805113541e+00
      5.9039132962872343e-01 -5.9218108679057622e+00
      1.0779252861785102e+00 -2.1205855102718646e-01
      -1.9024420271983389e+00 -9.7205415620713131e-01
      -3.6960324340454137e-01 5.2198723688669428e+00
      -8.4141510230677508e-02 -4.2826508350706066e-01
      -1.7705495144527222e-01 -1.2185918884145534e-01
      4.1479330729619973e-01 -4.2404187284096978e-01
      -6.6835246220395578e-02 6.5403995796878900e-01
      7.6157457058052536e-01 4.0494492085447475e-01
      1.8668536923407239e-01 -4.3381936963453971e-01
      1.0254391070853976e+00 8.8721741394548159e-01
      2.3409236080942436e-01 -1.2365203675103280e+00
      -5.7840803065491764e-01 -1.2057443458624719e+00</_>
    <_>
      -7.1355079503397789e-01 -5.1488148715781112e-01
      7.7918044735380765e-01 7.4909628518329741e-01
      4.2921152654827244e-01 -5.7030437935479528e-01
      -6.4595751523461520e-01 -1.5133325199789186e-02
      4.9801993815485807e-01 -6.0641515441380611e-01
      7.2787350069129109e-01 2.0693971216414986e+00
      -7.9560691170829659e-02 -4.7702458610616449e-01
      3.1775031882949600e-01 -2.9754626208156099e-01
      -5.8709502994614660e-01 -2.2352555153434578e-01
      -3.5812814060845979e-02 2.7544427463520521e-01
      7.4244719747240273e+00 3.6631668128760103e-01
      -2.8895542322974457e+00 -9.5509925639645954e-01
      -3.2947265058898384e-01 6.0449942355218411e-01
      1.0593651787499818e+00 -5.5583885311239645e-01
      -6.4427205508038421e-01 1.2303048870423809e+00
      -2.9321252877433918e-01 -3.4073822240187401e+00
      1.4441626310061415e+00 3.2239008587471374e-01
      -1.8470716722095377e+00 8.3459723827584362e-02
      2.3338240686496552e+00 7.4531870456810118e-02
      1.2048549458455182e+00 -5.3309281962544408e-01
      -2.6629560967781343e+00 -7.0039723861610059e-01
      1.0725709501654548e+00 6.0836823797673112e-01
      6.9176639249920358e-01 -7.8306202907738132e-01
      -6.2400224484981537e-01 1.1467424155581791e+00
      7.2662561826798888e-01 1.1715366761228769e+00
      5.4722230507764213e-01 -1.2929667083363461e+00
      3.2743859926098418e-01 -6.4464955318571804e-01
      1.7924628437174017e-01 -8.3488729564563147e-01
      -1.7740468971290408e+00 8.8892428939184620e-01
      7.3094945575207293e-01 9.3794077095226103e-01
      -1.5158696179796036e+00 -1.1170982774879445e+00
      6.4280322670029988e-01 8.7009509609198343e-01
      1.1906034603304254e+00 -1.1778308186138275e+00
      -1.0200286533071499e+00 1.4528640348287156e+00
      1.2228128529808040e+00 -1.6923660889779510e+00
      7.3921377121728826e-01 1.1417435630314618e+00
      -6.2272348786239384e-01 -1.1778477670889298e+00
      9.0067896037183615e-01 -1.3514879479934834e+00
      -1.9849349977724997e+00 1.6045791387070485e+00
      -7.9123145467347533e-01 1.4917753674350225e+00
      -4.3118568256819261e+00 -2.8939237868868561e-01
      1.4037258533866210e+00 -6.4001247045477119e-02
      4.5515339607221317e-01 -3.7509894736083427e-01
      -1.0366522832926245e-01 6.7798645345697250e-01
      3.1135167961342031e-01 1.4229877241328310e+00
      2.1678836256605433e-01 -4.0050077831518269e+00
      2.7597504387435270e-02 -3.7535923764335882e-01
      2.2874989547633442e+00 -3.8927248994453745e-01
      -1.3986298351544322e+00 3.2450240353328630e-01
      1.0236318804535056e+00 4.2244079921946182e-01
      -1.0893674047372133e+00 -4.8733147791503501e-01
      3.7589127981380616e-01 2.9530012769666164e-01
      3.8308488699285292e-01 -5.5499138001474424e-01
      -2.7810969723997198e-01 6.7258023775932319e-01
      5.1019152198472872e-01 3.6213718989138201e-03
      6.0548406016491807e-01 3.9724647917726754e-03
      4.1119633852093324e-01 -4.7006006957707996e-01
      -2.6454216308744549e-01 -2.5406229828326676e-01
      -2.0621280257265049e+00 3.0852626111266079e-01
      5.4662926943079804e-01 4.5509029759598757e-01
      -5.9327759572102423e-01 -4.6554021341025670e-01
      7.3441116798658646e-01 2.7140645242207238e-02
      3.2879009108186297e-01 -3.8612277426261704e-01
      -1.9295342217568265e-01 1.0948842897803557e+00
      2.3492212013574967e-01 -2.2121846298453085e+00
      1.7999647244657935e-01 2.4150020099191396e+00
      -7.1202246618152376e-01 -3.4184821778531332e-01
      9.9247459432598983e-01 -6.8294491045213179e-01
      -6.3130986305254266e-01 7.9329003043231150e-01
      -2.0331653092775223e-01 6.1962734671565300e-01
      -1.1890333864969740e+00 -7.1467742414008217e-01
      -2.8399799017883878e-02 9.4849872798493429e-01
      6.0989986237203342e-01 -6.1715150655704565e-01
      -9.5035579001425352e-01 8.2182216716275192e-01
      7.3423989574116955e-01 -3.2825049987992849e-01
      8.5709703283314553e-01 3.1191150685068444e-02
      6.2379976193497200e-01 -6.3638381914470443e-01
      7.8113261676635215e-01 -5.6106084572682768e-01
      -1.6193307357413733e+00 5.8977443496562643e-01
      5.3134817098095977e-01 7.8201643297411794e-01
      -9.6599315186016999e-01 6.6188398825510963e-01
      -7.9673921134377157e-01 -7.2811047083414837e-01
      -8.9275881033150661e-01 9.0002568642648295e-01
      6.4407581918215684e-01 -1.0509844850559995e+00
      -7.8417743088563574e-01 -2.3642552556588479e+00
      -7.0761753520218329e-01 4.3534194608260695e+00
      -1.3077563751046870e+00 9.6499127389413808e-01
      -4.6969544361279936e-01 9.9848362031103521e-01
      1.1156084546950296e+00 -1.1937765718195206e+00
      -1.7818545520849849e+00 -9.0333929484696107e-01
      1.3307148388418892e+00 6.8610110834114879e-01
      7.7574495636108154e-01 -8.4963270690609161e-01
      -7.1200257449021387e-01 6.2284318232169567e-01
      7.3631010643252448e-01 -1.0110141045840533e+00
      -7.5136333698862401e-01 -8.0097805930635002e-01
      -6.1484047155000765e-01 8.3909970386623267e-01
      -3.9306546945970217e-01 6.0078136307429786e-01
      -7.8239698168770433e-01 6.2996023236425869e-01
      2.4303076767222107e+00 -5.6924976404642025e-01
      -7.1712270652591981e-01 -7.4534585630833183e-01
      -3.0103453767437366e-01 -7.9990859624710353e-01
      1.2853659959227897e+00 6.0101421200264804e-01
      8.5649383486574582e-01 -8.2833874298498933e-01
      -4.7902763393093040e-01 1.3231331080291981e+00
      8.8991761063010777e-01 1.0346382698217109e+00
      6.3377259333629654e-01 -1.8289181053712769e+00
      8.2436689857955914e-01 -9.1440193231985678e-01
      -2.2875957607507394e-01 -8.6405441946257022e-01
      -2.3477939876882399e+00 1.0937579629707639e+00
      8.4499698143562707e-01 1.1395562992104840e+00
      -1.3028494820535080e-01 -8.7942017320297083e-01
      1.2984404526961535e+00 5.1813794173735261e-01
      1.1216956984883513e+00 -1.1361768447560285e+00
      -7.2458448367003547e-01 1.7773377774970065e+00
      1.0083339772479316e+00 9.9932170012715260e-02
      6.9145359911629145e-01 -2.4181378967311240e-01
      3.3515057685320586e-02 -1.1666219785304084e+00
      7.6583701589025804e-02 -1.3180000485724976e+00
      -2.8511963487692307e+00 1.2087990658801413e+00
      -2.8834909421913111e-02 1.4751597785147079e+00
      1.3840487593882047e+00 4.3347900502187442e-01
      -1.2634413889503355e+00 -7.5036515484467059e-01
      -3.7539643316186377e-01 3.9802814659971031e-01
      8.6507456302560337e-01 -5.9598185618705413e-01
      -5.7685371745202341e-01 3.0982669877556812e-01
      -4.3476202608819292e-01 -8.2752377383944420e-01
      -1.1530814260780267e-01 4.5906882684786748e-01
      1.7200841543533588e-01 3.6176829145495953e-01
      1.1874876703826063e+00 -6.0904204972913401e-01
      8.3217030874219755e-01 -5.0838888477614175e-01
      1.2049039460399555e+00 4.1612878397217790e-01
      -1.3352365150134076e+00 -6.7412121758502763e-01
      -2.7105011719667793e-01 3.3072383645364534e-01
      4.5654924355442772e-01 -6.4685514345068007e-01
      -2.9905102696642827e-01 1.2093834503616372e+00
      -3.5138319248400091e-01 -2.3468180396004361e+00
      -2.5920883984533655e-01 3.2015304380366538e-01
      -8.4223615308686450e-01 4.0270834629248298e-01
      -9.9648803650499509e-02 -6.2239761075333344e-01
      -7.3274518894477048e-01 -2.7219426099744598e-01
      -2.3976749871421132e+00 -3.7254160156812804e-01
      2.2903896375844965e+00 4.9202410874243363e-01
      3.7681294453202890e-01 -4.6394350756117214e-01
      -5.6885513208778693e-01 4.3977334810001734e-01
      3.4162428515246657e-01 2.1558058360422505e+00
      4.8987345618907163e-01 -1.2398196197610836e+00
      1.3302256860014470e+00 -3.5265004520111759e-01
      1.4751294729466216e+00 -3.4250544315254294e-01
      -8.5239198320581122e-01 5.1838485844777393e-01
      1.0983834353619719e+00 5.5871301388300321e-01
      -1.9137067863627846e+00 5.9097223777564412e-01
      1.7169501344597471e-01 -1.0354033761611017e+00
      -1.3975350880348317e-01 1.1962349948106124e-01
      6.5401734265211120e-01 -2.4586951036020832e-01
      -1.2254762273175716e-01 -3.5393349344623406e+00
      -8.4128192826793413e-01 7.3352494201553871e+00
      -2.7825762725149206e+00 8.7652968520053762e-02
      -3.3583930983187493e-01 4.3202742724958987e-01
      -3.2764007485297042e-01 -7.6522334271221371e-01
      -3.7432893472612307e+00 -2.1093562802160667e-01
      2.8342618308977130e+00 1.3334370035480994e-01
      -1.7135581705406999e+00 -4.8764760048203776e-01
      -2.0157971772359942e-01 2.7998870784691648e-01
      3.4082934661033110e-01 -4.3222192880209648e-01
      -3.3082659234139755e-01 1.0121378642084882e+00
      -3.9850948635275607e-01 -1.2964905128646660e+00
      -1.3434363647164875e+00 2.6803093035615472e-01
      -1.0952775259657002e+00 1.8058310225113208e-01
      5.4407538392583032e-01 4.1076882903657776e-02
      -6.7122068528699019e-01 -2.8314870351546989e-01
      -1.3785929431093460e+00 4.2214946992348408e-02
      2.9064497144661376e+00 3.7838261225725353e-02
      -1.8026823205619663e-01 9.6227089039667119e-02
      -5.5296983993868169e-02 7.3225133439518719e-01
      2.1084638861991842e-02 -8.8059328678081372e-01
      -1.2935885989233512e-01 -2.7106218582513382e+00
      -1.2260523241985809e-01 2.0379004029905161e-02
      -4.8499132177147225e-01 -7.7968643015337527e-02
      -3.3418493587810572e-01 2.8008113449643052e-01
      -3.3755537193462699e-02 1.0465996783816828e-01
      1.1897105158612711e+00 5.3988472239919993e-01
      -7.2684844443573104e-01 -3.5792881144731326e-01
      -4.6989322643519599e-01 4.1242360045309623e-01
      3.4264913960624799e-01 -3.8290787539225613e-01
      -5.1901611516060076e-01 7.3234855842207555e-02
      -5.0948815644691181e-01 -2.0544209315757804e+00
      -7.7334556110600416e-01 4.3581942035549359e-01
      -1.3987576242433547e-01 3.5673142337399533e-01
      6.1845700691975636e-01 -3.4260041948225534e-01
      -1.1264175734467947e+00 -4.0989649108033849e-01
      2.7868897944283386e+00 3.2711346858146739e-01
      -4.3531268814536759e+00 -2.2821595576019668e-01
      -3.7549289560675725e-01 2.7093744600418634e-01
      2.2492110960311956e-01 4.9994259669604024e-03
      -4.0101795990057743e-01 2.4280464250747591e-01
      -2.9017052734441806e-01 -1.9000007828054979e+00
      -2.2885575859561400e-01 3.7494395595523644e-01
      -1.8963035175433913e+00 1.0573367836855388e-01
      7.2711390309911306e-01 -1.2843219899515804e-01
      3.0106248568469191e-01 -2.6227157367431442e-01
      -4.3619630470257925e-01 7.8505120084123892e-01
      1.7442033218108717e+00 -1.3731759014591083e+00
      -1.1092629381132595e+00 8.6344387899156805e-01
      1.3749010085103854e+00 2.6676837836190470e-01
      -8.8276119136872666e-01 1.9345991466489210e+00
      -1.2957717709921648e+00 -1.5380861656166838e+00
      -5.2559392242636949e-01 9.5776463069407114e-01
      -2.1482854095308030e+00 6.9056478956924006e-01
      -1.3420167689300606e+00 -3.1214237933089956e-01
      -1.8367091297145605e-01 -2.6253521384643635e-01</_>
    <_>
      -1.7199969095787595e+00 9.6800618338887173e-02
      1.0335882917043739e+00 -9.9139728489679935e-01
      -2.2812733374840986e-02 1.3713661969378771e-01
      7.9071641669180681e-01 9.9578408356028136e-01
      -2.8349040768198641e-01 -6.8464162205600754e-01
      -4.0341873210916701e-01 2.7507060421978129e+00
      -5.6218114444787770e-01 5.1730535861659793e-02
      -1.5608294874470048e+00 -4.0711275296869454e-01
      -2.9065276632604933e+00 9.9246434042135168e-01
      -1.1232717805785524e+00 2.4747424971668003e-01
      -1.5939236398570378e-01</_></weights></opencv_ml_ann_mlp>
</opencv_storage>
